digraph Tree {
node [shape=box, style="filled", color="black"] ;
0 [label="X[5] <= 6.941\nmse = 84.42\nsamples = 506\nvalue = 22.533", fillcolor="#f6d1b7"] ;
1 [label="X[12] <= 14.4\nmse = 40.273\nsamples = 430\nvalue = 19.934", fillcolor="#f7dac4"] ;
0 -> 1 [labeldistance=2.5, labelangle=45, headlabel="True"] ;
2 [label="X[12] <= 4.91\nmse = 26.009\nsamples = 255\nvalue = 23.35", fillcolor="#f5cfb3"] ;
1 -> 2 ;
3 [label="mse = 47.187\nsamples = 20\nvalue = 31.565", fillcolor="#f0b58a"] ;
2 -> 3 ;
4 [label="X[12] <= 9.715\nmse = 17.974\nsamples = 235\nvalue = 22.651", fillcolor="#f5d1b7"] ;
2 -> 4 ;
5 [label="X[6] <= 87.6\nmse = 22.287\nsamples = 122\nvalue = 24.393", fillcolor="#f4cbae"] ;
4 -> 5 ;
6 [label="X[5] <= 6.125\nmse = 11.111\nsamples = 112\nvalue = 23.787", fillcolor="#f5cdb1"] ;
5 -> 6 ;
7 [label="mse = 4.865\nsamples = 29\nvalue = 20.624", fillcolor="#f7d7c1"] ;
6 -> 7 ;
8 [label="X[5] <= 6.611\nmse = 8.576\nsamples = 83\nvalue = 24.893", fillcolor="#f4caab"] ;
6 -> 8 ;
9 [label="X[9] <= 332.5\nmse = 6.848\nsamples = 60\nvalue = 23.99", fillcolor="#f5cdb0"] ;
8 -> 9 ;
10 [label="X[6] <= 63.7\nmse = 6.345\nsamples = 50\nvalue = 24.366", fillcolor="#f4ccae"] ;
9 -> 10 ;
11 [label="X[7] <= 4.631\nmse = 6.944\nsamples = 40\nvalue = 24.747", fillcolor="#f4caac"] ;
10 -> 11 ;
12 [label="mse = 14.017\nsamples = 11\nvalue = 26.564", fillcolor="#f3c5a3"] ;
11 -> 12 ;
13 [label="mse = 2.536\nsamples = 29\nvalue = 24.059", fillcolor="#f5ccb0"] ;
11 -> 13 ;
14 [label="mse = 1.038\nsamples = 10\nvalue = 22.84", fillcolor="#f5d0b6"] ;
10 -> 14 ;
15 [label="mse = 5.119\nsamples = 10\nvalue = 22.11", fillcolor="#f6d3b9"] ;
9 -> 15 ;
16 [label="mse = 5.413\nsamples = 23\nvalue = 27.248", fillcolor="#f2c2a0"] ;
8 -> 16 ;
17 [label="mse = 97.42\nsamples = 10\nvalue = 31.17", fillcolor="#f0b68c"] ;
5 -> 17 ;
18 [label="X[10] <= 17.85\nmse = 6.503\nsamples = 113\nvalue = 20.77", fillcolor="#f7d7c0"] ;
4 -> 18 ;
19 [label="X[9] <= 309.0\nmse = 8.556\nsamples = 33\nvalue = 21.864", fillcolor="#f6d3bb"] ;
18 -> 19 ;
20 [label="mse = 9.029\nsamples = 15\nvalue = 23.127", fillcolor="#f5cfb4"] ;
19 -> 20 ;
21 [label="mse = 5.725\nsamples = 18\nvalue = 20.811", fillcolor="#f7d7c0"] ;
19 -> 21 ;
22 [label="X[2] <= 10.245\nmse = 4.96\nsamples = 80\nvalue = 20.319", fillcolor="#f7d8c2"] ;
18 -> 22 ;
23 [label="X[6] <= 70.1\nmse = 4.35\nsamples = 44\nvalue = 19.661", fillcolor="#f7dac5"] ;
22 -> 23 ;
24 [label="mse = 4.541\nsamples = 26\nvalue = 20.292", fillcolor="#f7d8c2"] ;
23 -> 24 ;
25 [label="mse = 2.668\nsamples = 18\nvalue = 18.75", fillcolor="#f8ddca"] ;
23 -> 25 ;
26 [label="X[4] <= 0.627\nmse = 4.531\nsamples = 36\nvalue = 21.122", fillcolor="#f6d6be"] ;
22 -> 26 ;
27 [label="mse = 4.093\nsamples = 24\nvalue = 20.783", fillcolor="#f7d7c0"] ;
26 -> 27 ;
28 [label="mse = 4.717\nsamples = 12\nvalue = 21.8", fillcolor="#f6d4bb"] ;
26 -> 28 ;
29 [label="X[0] <= 6.992\nmse = 19.276\nsamples = 175\nvalue = 14.956", fillcolor="#fbe9dd"] ;
1 -> 29 ;
30 [label="X[4] <= 0.531\nmse = 11.391\nsamples = 101\nvalue = 17.138", fillcolor="#f9e2d2"] ;
29 -> 30 ;
31 [label="mse = 9.016\nsamples = 24\nvalue = 20.021", fillcolor="#f7d9c4"] ;
30 -> 31 ;
32 [label="X[12] <= 18.885\nmse = 8.733\nsamples = 77\nvalue = 16.239", fillcolor="#fae5d6"] ;
30 -> 32 ;
33 [label="X[6] <= 85.2\nmse = 5.952\nsamples = 53\nvalue = 17.234", fillcolor="#f9e2d1"] ;
32 -> 33 ;
34 [label="mse = 4.531\nsamples = 12\nvalue = 19.408", fillcolor="#f8dbc7"] ;
33 -> 34 ;
35 [label="X[0] <= 0.615\nmse = 4.579\nsamples = 41\nvalue = 16.598", fillcolor="#f9e4d5"] ;
33 -> 35 ;
36 [label="mse = 3.971\nsamples = 16\nvalue = 18.112", fillcolor="#f8dfcd"] ;
35 -> 36 ;
37 [label="mse = 2.559\nsamples = 25\nvalue = 15.628", fillcolor="#fae7d9"] ;
35 -> 37 ;
38 [label="mse = 7.862\nsamples = 24\nvalue = 14.042", fillcolor="#fbece1"] ;
32 -> 38 ;
39 [label="X[4] <= 0.606\nmse = 14.674\nsamples = 74\nvalue = 11.978", fillcolor="#fcf3ec"] ;
29 -> 39 ;
40 [label="mse = 18.606\nsamples = 12\nvalue = 16.633", fillcolor="#f9e4d4"] ;
39 -> 40 ;
41 [label="X[12] <= 19.645\nmse = 8.908\nsamples = 62\nvalue = 11.077", fillcolor="#fdf5f0"] ;
39 -> 41 ;
42 [label="mse = 4.18\nsamples = 18\nvalue = 13.922", fillcolor="#fbece2"] ;
41 -> 42 ;
43 [label="X[4] <= 0.675\nmse = 6.177\nsamples = 44\nvalue = 9.914", fillcolor="#fef9f6"] ;
41 -> 43 ;
44 [label="mse = 1.544\nsamples = 10\nvalue = 12.63", fillcolor="#fcf1e8"] ;
43 -> 44 ;
45 [label="X[0] <= 13.24\nmse = 4.731\nsamples = 34\nvalue = 9.115", fillcolor="#fefcfa"] ;
43 -> 45 ;
46 [label="mse = 3.989\nsamples = 15\nvalue = 10.46", fillcolor="#fdf7f3"] ;
45 -> 46 ;
47 [label="mse = 2.76\nsamples = 19\nvalue = 8.053", fillcolor="#ffffff"] ;
45 -> 47 ;
48 [label="X[5] <= 7.437\nmse = 79.729\nsamples = 76\nvalue = 37.238", fillcolor="#eca36e"] ;
0 -> 48 [labeldistance=2.5, labelangle=-45, headlabel="False"] ;
49 [label="X[12] <= 5.495\nmse = 41.296\nsamples = 46\nvalue = 32.113", fillcolor="#efb388"] ;
48 -> 49 ;
50 [label="mse = 17.249\nsamples = 23\nvalue = 35.248", fillcolor="#eda978"] ;
49 -> 50 ;
51 [label="mse = 45.69\nsamples = 23\nvalue = 28.978", fillcolor="#f1bd97"] ;
49 -> 51 ;
52 [label="X[10] <= 15.4\nmse = 36.628\nsamples = 30\nvalue = 45.097", fillcolor="#e78a47"] ;
48 -> 52 ;
53 [label="mse = 7.774\nsamples = 16\nvalue = 47.975", fillcolor="#e58139"] ;
52 -> 53 ;
54 [label="mse = 49.315\nsamples = 14\nvalue = 41.807", fillcolor="#e99458"] ;
52 -> 54 ;
}